digraph Tree {
node [shape=box, style="filled", color="black"] ;
0 [label="worst perimeter <= 106.1\ngini = 0.478\nsamples = 398\nvalue = [157, 241]\nclass = benign", fillcolor="#baddf6"] ;
1 [label="worst smoothness <= 0.178\ngini = 0.082\nsamples = 234\nvalue = [10, 224]\nclass = benign", fillcolor="#42a1e6"] ;
0 -> 1 [labeldistance=2.5, labelangle=45, headlabel="True"] ;
2 [label="perimeter error <= 6.597\ngini = 0.035\nsamples = 227\nvalue = [4, 223]\nclass = benign", fillcolor="#3d9fe5"] ;
1 -> 2 ;
3 [label="worst concave points <= 0.181\ngini = 0.026\nsamples = 226\nvalue = [3, 223]\nclass = benign", fillcolor="#3c9ee5"] ;
2 -> 3 ;
4 [label="worst symmetry <= 0.364\ngini = 0.018\nsamples = 225\nvalue = [2, 223]\nclass = benign", fillcolor="#3b9ee5"] ;
3 -> 4 ;
5 [label="worst texture <= 33.35\ngini = 0.009\nsamples = 222\nvalue = [1, 221]\nclass = benign", fillcolor="#3a9de5"] ;
4 -> 5 ;
6 [label="gini = 0.0\nsamples = 207\nvalue = [0, 207]\nclass = benign", fillcolor="#399de5"] ;
5 -> 6 ;
7 [label="worst texture <= 33.56\ngini = 0.124\nsamples = 15\nvalue = [1, 14]\nclass = benign", fillcolor="#47a4e7"] ;
5 -> 7 ;
8 [label="gini = 0.0\nsamples = 1\nvalue = [1, 0]\nclass = malignant", fillcolor="#e58139"] ;
7 -> 8 ;
9 [label="gini = 0.0\nsamples = 14\nvalue = [0, 14]\nclass = benign", fillcolor="#399de5"] ;
7 -> 9 ;
10 [label="concavity error <= 0.02\ngini = 0.444\nsamples = 3\nvalue = [1, 2]\nclass = benign", fillcolor="#9ccef2"] ;
4 -> 10 ;
11 [label="gini = 0.0\nsamples = 1\nvalue = [1, 0]\nclass = malignant", fillcolor="#e58139"] ;
10 -> 11 ;
12 [label="gini = 0.0\nsamples = 2\nvalue = [0, 2]\nclass = benign", fillcolor="#399de5"] ;
10 -> 12 ;
13 [label="gini = 0.0\nsamples = 1\nvalue = [1, 0]\nclass = malignant", fillcolor="#e58139"] ;
3 -> 13 ;
14 [label="gini = 0.0\nsamples = 1\nvalue = [1, 0]\nclass = malignant", fillcolor="#e58139"] ;
2 -> 14 ;
15 [label="fractal dimension error <= 0.01\ngini = 0.245\nsamples = 7\nvalue = [6, 1]\nclass = malignant", fillcolor="#e9965a"] ;
1 -> 15 ;
16 [label="gini = 0.0\nsamples = 6\nvalue = [6, 0]\nclass = malignant", fillcolor="#e58139"] ;
15 -> 16 ;
17 [label="gini = 0.0\nsamples = 1\nvalue = [0, 1]\nclass = benign", fillcolor="#399de5"] ;
15 -> 17 ;
18 [label="worst perimeter <= 117.45\ngini = 0.186\nsamples = 164\nvalue = [147, 17]\nclass = malignant", fillcolor="#e89050"] ;
0 -> 18 [labeldistance=2.5, labelangle=-45, headlabel="False"] ;
19 [label="worst texture <= 20.355\ngini = 0.489\nsamples = 40\nvalue = [23, 17]\nclass = malignant", fillcolor="#f8decb"] ;
18 -> 19 ;
20 [label="gini = 0.0\nsamples = 10\nvalue = [0, 10]\nclass = benign", fillcolor="#399de5"] ;
19 -> 20 ;
21 [label="mean smoothness <= 0.089\ngini = 0.358\nsamples = 30\nvalue = [23, 7]\nclass = malignant", fillcolor="#eda775"] ;
19 -> 21 ;
22 [label="worst radius <= 17.01\ngini = 0.408\nsamples = 7\nvalue = [2, 5]\nclass = benign", fillcolor="#88c4ef"] ;
21 -> 22 ;
23 [label="gini = 0.0\nsamples = 5\nvalue = [0, 5]\nclass = benign", fillcolor="#399de5"] ;
22 -> 23 ;
24 [label="gini = 0.0\nsamples = 2\nvalue = [2, 0]\nclass = malignant", fillcolor="#e58139"] ;
22 -> 24 ;
25 [label="worst radius <= 18.055\ngini = 0.159\nsamples = 23\nvalue = [21, 2]\nclass = malignant", fillcolor="#e78d4c"] ;
21 -> 25 ;
26 [label="worst texture <= 21.79\ngini = 0.087\nsamples = 22\nvalue = [21, 1]\nclass = malignant", fillcolor="#e68742"] ;
25 -> 26 ;
27 [label="texture error <= 0.696\ngini = 0.5\nsamples = 2\nvalue = [1, 1]\nclass = malignant", fillcolor="#ffffff"] ;
26 -> 27 ;
28 [label="gini = 0.0\nsamples = 1\nvalue = [1, 0]\nclass = malignant", fillcolor="#e58139"] ;
27 -> 28 ;
29 [label="gini = 0.0\nsamples = 1\nvalue = [0, 1]\nclass = benign", fillcolor="#399de5"] ;
27 -> 29 ;
30 [label="gini = 0.0\nsamples = 20\nvalue = [20, 0]\nclass = malignant", fillcolor="#e58139"] ;
26 -> 30 ;
31 [label="gini = 0.0\nsamples = 1\nvalue = [0, 1]\nclass = benign", fillcolor="#399de5"] ;
25 -> 31 ;
32 [label="gini = 0.0\nsamples = 124\nvalue = [124, 0]\nclass = malignant", fillcolor="#e58139"] ;
18 -> 32 ;
}